digraph Tree {
node [shape=box] ;
0 [label="CRS_DEP_TIME <= 1224.1667\ngini = 0.3029\nsamples = 63747\nvalue = [51885, 11862]"] ;
1 [label="CRS_DEP_TIME <= 865.8334\ngini = 0.2268\nsamples = 28591\nvalue = [24863, 3728]"] ;
0 -> 1 [labeldistance=2.5, labelangle=45, headlabel="True"] ;
2 [label="MONTH <= 11.5\ngini = 0.1796\nsamples = 13704\nvalue = [12337, 1367]"] ;
1 -> 2 ;
3 [label="MONTH <= 6.5\ngini = 0.1728\nsamples = 12576\nvalue = [11375, 1201]"] ;
2 -> 3 ;
4 [label="UNIQUE_CARRIER <= 8.5\ngini = 0.1944\nsamples = 6601\nvalue = [5881, 720]"] ;
3 -> 4 ;
5 [label="CRS_DEP_TIME <= 732.5\ngini = 0.2033\nsamples = 5877\nvalue = [5202, 675]"] ;
4 -> 5 ;
6 [label="CRS_ELAPSED_TIME <= 165.5\ngini = 0.1845\nsamples = 3278\nvalue = [2941, 337]"] ;
5 -> 6 ;
7 [label="gini = 0.1656\nsamples = 1680\nvalue = [1527, 153]"] ;
6 -> 7 ;
8 [label="gini = 0.2038\nsamples = 1598\nvalue = [1414, 184]"] ;
6 -> 8 ;
9 [label="UNIQUE_CARRIER_3 <= 0.5\ngini = 0.2263\nsamples = 2599\nvalue = [2261, 338]"] ;
5 -> 9 ;
10 [label="gini = 0.2428\nsamples = 1853\nvalue = [1591, 262]"] ;
9 -> 10 ;
11 [label="gini = 0.183\nsamples = 746\nvalue = [670, 76]"] ;
9 -> 11 ;
12 [label="gini = 0.1166\nsamples = 724\nvalue = [679, 45]"] ;
4 -> 12 ;
13 [label="CRS_DEP_TIME <= 749.1666\ngini = 0.148\nsamples = 5975\nvalue = [5494, 481]"] ;
3 -> 13 ;
14 [label="UNIQUE_CARRIER_3 <= 0.5\ngini = 0.129\nsamples = 3853\nvalue = [3586, 267]"] ;
13 -> 14 ;
15 [label="CRS_DEP_TIME <= 632.5\ngini = 0.1398\nsamples = 3028\nvalue = [2799, 229]"] ;
14 -> 15 ;
16 [label="gini = 0.1188\nsamples = 1403\nvalue = [1314, 89]"] ;
15 -> 16 ;
17 [label="gini = 0.1575\nsamples = 1625\nvalue = [1485, 140]"] ;
15 -> 17 ;
18 [label="gini = 0.0879\nsamples = 825\nvalue = [787, 38]"] ;
14 -> 18 ;
19 [label="CRS_ELAPSED_TIME <= 170.5\ngini = 0.1814\nsamples = 2122\nvalue = [1908, 214]"] ;
13 -> 19 ;
20 [label="AVG_ARR_DELAY_RATE <= 0.2205\ngini = 0.2111\nsamples = 1134\nvalue = [998, 136]"] ;
19 -> 20 ;
21 [label="gini = 0.2481\nsamples = 510\nvalue = [436, 74]"] ;
20 -> 21 ;
22 [label="gini = 0.179\nsamples = 624\nvalue = [562, 62]"] ;
20 -> 22 ;
23 [label="gini = 0.1454\nsamples = 988\nvalue = [910, 78]"] ;
19 -> 23 ;
24 [label="DAY_OF_WEEK <= 3.5\ngini = 0.251\nsamples = 1128\nvalue = [962, 166]"] ;
2 -> 24 ;
25 [label="gini = 0.2861\nsamples = 555\nvalue = [459, 96]"] ;
24 -> 25 ;
26 [label="gini = 0.2145\nsamples = 573\nvalue = [503, 70]"] ;
24 -> 26 ;
27 [label="UNIQUE_CARRIER_3 <= 0.5\ngini = 0.2669\nsamples = 14887\nvalue = [12526, 2361]"] ;
1 -> 27 ;
28 [label="DEST_AIRPORT_ID <= 14759.0\ngini = 0.285\nsamples = 10822\nvalue = [8959, 1863]"] ;
27 -> 28 ;
29 [label="MONTH <= 2.5\ngini = 0.2759\nsamples = 9808\nvalue = [8187, 1621]"] ;
28 -> 29 ;
30 [label="AVG_ARR_DELAY_RATE <= 0.2233\ngini = 0.3362\nsamples = 1492\nvalue = [1173, 319]"] ;
29 -> 30 ;
31 [label="gini = 0.2977\nsamples = 687\nvalue = [562, 125]"] ;
30 -> 31 ;
32 [label="gini = 0.3658\nsamples = 805\nvalue = [611, 194]"] ;
30 -> 32 ;
33 [label="CRS_ARR_TIME <= 1329.1667\ngini = 0.2641\nsamples = 8316\nvalue = [7014, 1302]"] ;
29 -> 33 ;
34 [label="AVG_ARR_DELAY_RATE <= 0.1747\ngini = 0.2386\nsamples = 4419\nvalue = [3807, 612]"] ;
33 -> 34 ;
35 [label="gini = 0.2052\nsamples = 1077\nvalue = [952, 125]"] ;
34 -> 35 ;
36 [label="gini = 0.249\nsamples = 3342\nvalue = [2855, 487]"] ;
34 -> 36 ;
37 [label="MONTH <= 7.5\ngini = 0.2914\nsamples = 3897\nvalue = [3207, 690]"] ;
33 -> 37 ;
38 [label="gini = 0.3174\nsamples = 1880\nvalue = [1508, 372]"] ;
37 -> 38 ;
39 [label="gini = 0.2656\nsamples = 2017\nvalue = [1699, 318]"] ;
37 -> 39 ;
40 [label="CRS_ELAPSED_TIME <= 144.5\ngini = 0.3634\nsamples = 1014\nvalue = [772, 242]"] ;
28 -> 40 ;
41 [label="gini = 0.3871\nsamples = 503\nvalue = [371, 132]"] ;
40 -> 41 ;
42 [label="gini = 0.3379\nsamples = 511\nvalue = [401, 110]"] ;
40 -> 42 ;
43 [label="MONTH <= 4.5\ngini = 0.215\nsamples = 4065\nvalue = [3567, 498]"] ;
27 -> 43 ;
44 [label="CANCEL_RATE <= 0.0452\ngini = 0.2632\nsamples = 1270\nvalue = [1072, 198]"] ;
43 -> 44 ;
45 [label="gini = 0.2957\nsamples = 693\nvalue = [568, 125]"] ;
44 -> 45 ;
46 [label="gini = 0.221\nsamples = 577\nvalue = [504, 73]"] ;
44 -> 46 ;
47 [label="DAY_OF_WEEK <= 5.5\ngini = 0.1916\nsamples = 2795\nvalue = [2495, 300]"] ;
43 -> 47 ;
48 [label="CRS_ARR_TIME <= 1429.1667\ngini = 0.2105\nsamples = 2049\nvalue = [1804, 245]"] ;
47 -> 48 ;
49 [label="CRS_ARR_TIME <= 1274.1667\ngini = 0.1955\nsamples = 1521\nvalue = [1354, 167]"] ;
48 -> 49 ;
50 [label="gini = 0.2165\nsamples = 907\nvalue = [795, 112]"] ;
49 -> 50 ;
51 [label="gini = 0.1631\nsamples = 614\nvalue = [559, 55]"] ;
49 -> 51 ;
52 [label="gini = 0.2518\nsamples = 528\nvalue = [450, 78]"] ;
48 -> 52 ;
53 [label="gini = 0.1366\nsamples = 746\nvalue = [691, 55]"] ;
47 -> 53 ;
54 [label="MONTH <= 8.5\ngini = 0.3557\nsamples = 35156\nvalue = [27022, 8134]"] ;
0 -> 54 [labeldistance=2.5, labelangle=-45, headlabel="False"] ;
55 [label="UNIQUE_CARRIER <= 3.5\ngini = 0.3766\nsamples = 23703\nvalue = [17740, 5963]"] ;
54 -> 55 ;
56 [label="UNIQUE_CARRIER_2 <= 0.5\ngini = 0.3451\nsamples = 12340\nvalue = [9604, 2736]"] ;
55 -> 56 ;
57 [label="MONTH_6 <= 0.5\ngini = 0.3348\nsamples = 10994\nvalue = [8657, 2337]"] ;
56 -> 57 ;
58 [label="UNIQUE_CARRIER_0 <= 0.5\ngini = 0.3227\nsamples = 9611\nvalue = [7667, 1944]"] ;
57 -> 58 ;
59 [label="CRS_ELAPSED_TIME <= 149.5\ngini = 0.2936\nsamples = 5672\nvalue = [4658, 1014]"] ;
58 -> 59 ;
60 [label="gini = 0.3336\nsamples = 2420\nvalue = [1908, 512]"] ;
59 -> 60 ;
61 [label="gini = 0.2611\nsamples = 3252\nvalue = [2750, 502]"] ;
59 -> 61 ;
62 [label="CRS_DEP_TIME <= 1596.6667\ngini = 0.3607\nsamples = 3939\nvalue = [3009, 930]"] ;
58 -> 62 ;
63 [label="gini = 0.3263\nsamples = 1593\nvalue = [1266, 327]"] ;
62 -> 63 ;
64 [label="gini = 0.3819\nsamples = 2346\nvalue = [1743, 603]"] ;
62 -> 64 ;
65 [label="CANCEL_RATE <= 0.0288\ngini = 0.4068\nsamples = 1383\nvalue = [990, 393]"] ;
57 -> 65 ;
66 [label="gini = 0.3471\nsamples = 510\nvalue = [396, 114]"] ;
65 -> 66 ;
67 [label="gini = 0.4349\nsamples = 873\nvalue = [594, 279]"] ;
65 -> 67 ;
68 [label="CRS_DEP_TIME <= 1710.8333\ngini = 0.4171\nsamples = 1346\nvalue = [947, 399]"] ;
56 -> 68 ;
69 [label="gini = 0.3716\nsamples = 519\nvalue = [391, 128]"] ;
68 -> 69 ;
70 [label="gini = 0.4406\nsamples = 827\nvalue = [556, 271]"] ;
68 -> 70 ;
71 [label="MONTH <= 5.5\ngini = 0.4067\nsamples = 11363\nvalue = [8136, 3227]"] ;
55 -> 71 ;
72 [label="UNIQUE_CARRIER_8 <= 0.5\ngini = 0.383\nsamples = 7388\nvalue = [5481, 1907]"] ;
71 -> 72 ;
73 [label="CRS_ELAPSED_TIME <= 85.5\ngini = 0.3968\nsamples = 5824\nvalue = [4235, 1589]"] ;
72 -> 73 ;
74 [label="gini = 0.4495\nsamples = 768\nvalue = [506, 262]"] ;
73 -> 74 ;
75 [label="CRS_ARR_TIME <= 1622.5\ngini = 0.3871\nsamples = 5056\nvalue = [3729, 1327]"] ;
73 -> 75 ;
76 [label="gini = 0.3339\nsamples = 1081\nvalue = [852, 229]"] ;
75 -> 76 ;
77 [label="gini = 0.3999\nsamples = 3975\nvalue = [2877, 1098]"] ;
75 -> 77 ;
78 [label="CRS_ARR_TIME <= 1914.1667\ngini = 0.324\nsamples = 1564\nvalue = [1246, 318]"] ;
72 -> 78 ;
79 [label="gini = 0.2884\nsamples = 847\nvalue = [699, 148]"] ;
78 -> 79 ;
80 [label="gini = 0.3618\nsamples = 717\nvalue = [547, 170]"] ;
78 -> 80 ;
81 [label="DAY_OF_WEEK <= 4.5\ngini = 0.4436\nsamples = 3975\nvalue = [2655, 1320]"] ;
71 -> 81 ;
82 [label="CRS_DEP_TIME <= 1544.1667\ngini = 0.4655\nsamples = 2373\nvalue = [1498, 875]"] ;
81 -> 82 ;
83 [label="gini = 0.4215\nsamples = 775\nvalue = [541, 234]"] ;
82 -> 83 ;
84 [label="UNIQUE_CARRIER <= 7.5\ngini = 0.4804\nsamples = 1598\nvalue = [957, 641]"] ;
82 -> 84 ;
85 [label="gini = 0.4562\nsamples = 1020\nvalue = [661, 359]"] ;
84 -> 85 ;
86 [label="gini = 0.4997\nsamples = 578\nvalue = [296, 282]"] ;
84 -> 86 ;
87 [label="CRS_DEP_TIME <= 1765.8333\ngini = 0.4012\nsamples = 1602\nvalue = [1157, 445]"] ;
81 -> 87 ;
88 [label="gini = 0.3595\nsamples = 898\nvalue = [687, 211]"] ;
87 -> 88 ;
89 [label="gini = 0.4438\nsamples = 704\nvalue = [470, 234]"] ;
87 -> 89 ;
90 [label="MONTH <= 11.5\ngini = 0.3073\nsamples = 11453\nvalue = [9282, 2171]"] ;
54 -> 90 ;
91 [label="DAY_OF_WEEK_4 <= 0.5\ngini = 0.2751\nsamples = 8557\nvalue = [7148, 1409]"] ;
90 -> 91 ;
92 [label="DAY_OF_WEEK_5 <= 0.5\ngini = 0.2603\nsamples = 7270\nvalue = [6152, 1118]"] ;
91 -> 92 ;
93 [label="MONTH <= 10.5\ngini = 0.2449\nsamples = 6026\nvalue = [5165, 861]"] ;
92 -> 93 ;
94 [label="CRS_ELAPSED_TIME <= 127.5\ngini = 0.2233\nsamples = 3982\nvalue = [3472, 510]"] ;
93 -> 94 ;
95 [label="gini = 0.2696\nsamples = 1295\nvalue = [1087, 208]"] ;
94 -> 95 ;
96 [label="gini = 0.1995\nsamples = 2687\nvalue = [2385, 302]"] ;
94 -> 96 ;
97 [label="CRS_ELAPSED_TIME <= 218.5\ngini = 0.2845\nsamples = 2044\nvalue = [1693, 351]"] ;
93 -> 97 ;
98 [label="gini = 0.3032\nsamples = 1487\nvalue = [1210, 277]"] ;
97 -> 98 ;
99 [label="gini = 0.2304\nsamples = 557\nvalue = [483, 74]"] ;
97 -> 99 ;
100 [label="CRS_DEP_TIME <= 1637.5\ngini = 0.3278\nsamples = 1244\nvalue = [987, 257]"] ;
92 -> 100 ;
101 [label="gini = 0.2861\nsamples = 532\nvalue = [440, 92]"] ;
100 -> 101 ;
102 [label="gini = 0.3561\nsamples = 712\nvalue = [547, 165]"] ;
100 -> 102 ;
103 [label="MONTH_10 <= 0.5\ngini = 0.35\nsamples = 1287\nvalue = [996, 291]"] ;
91 -> 103 ;
104 [label="gini = 0.3812\nsamples = 753\nvalue = [560, 193]"] ;
103 -> 104 ;
105 [label="gini = 0.2997\nsamples = 534\nvalue = [436, 98]"] ;
103 -> 105 ;
106 [label="CRS_DEP_TIME <= 1660.0\ngini = 0.3878\nsamples = 2896\nvalue = [2134, 762]"] ;
90 -> 106 ;
107 [label="DAY_OF_WEEK <= 3.5\ngini = 0.347\nsamples = 1343\nvalue = [1043, 300]"] ;
106 -> 107 ;
108 [label="gini = 0.3697\nsamples = 662\nvalue = [500, 162]"] ;
107 -> 108 ;
109 [label="gini = 0.3232\nsamples = 681\nvalue = [543, 138]"] ;
107 -> 109 ;
110 [label="DAY_OF_WEEK <= 3.5\ngini = 0.418\nsamples = 1553\nvalue = [1091, 462]"] ;
106 -> 110 ;
111 [label="gini = 0.4528\nsamples = 719\nvalue = [470, 249]"] ;
110 -> 111 ;
112 [label="gini = 0.3803\nsamples = 834\nvalue = [621, 213]"] ;
110 -> 112 ;
}